-0.0004026259959928074
-0.00022050492564218684
0.0001677442608184016
-0.00044461873655198
-0.0003368585107561478
-0.0004238974276225213
-0.0003598297923589688
-9.869098338983488e-6
0.000450760185904076
-0.0004026259959928074
-0.00022050492564218684
0.0001677442608184016
-0.00044461873655198
-0.0003368585107561478
-0.0004238974276225213
-0.0003598297923589688
-9.869098338983488e-6
0.000450760185904076
-0.0004026259959928074
-0.00022050492564218684
0.0001677442608184016
-0.00044461873655198
-0.0003368585107561478
-0.0004238974276225213
-0.0003598297923589688
-9.869098338983488e-6
0.000450760185904076
-0.0004026259959928074
-0.00022050492564218684
0.0001677442608184016
-0.00044461873655198
-0.0003368585107561478
-0.0004238974276225213
-0.0003598297923589688
-9.869098338983488e-6
0.000450760185904076
-0.0004026259959928074
-0.00022050492564218684
0.0001677442608184016
-0.00044461873655198
-0.0003368585107561478
-0.0004238974276225213
-0.0003598297923589688
-9.869098338983488e-6
0.000450760185904076
-0.0004026259959928074
-0.00022050492564218684
0.0001677442608184016
-0.00044461873655198
-0.0003368585107561478
-0.0004238974276225213
-0.0003598297923589688
-9.869098338983488e-6
0.000450760185904076
-0.0004026259959928074
-0.00022050492564218684
0.0001677442608184016
-0.00044461873655198
-0.0003368585107561478
-0.0004238974276225213
-0.0003598297923589688
-9.869098338983488e-6
0.000450760185904076
-0.0004026259959928074
-0.00022050492564218684
0.0001677442608184016
-0.00044461873655198
-0.0003368585107561478
-0.0004238974276225213
-0.0003598297923589688
-9.869098338983488e-6
0.000450760185904076
-0.0004026259959928074
-0.00022050492564218684
0.0001677442608184016
-0.00044461873655198
-0.0003368585107561478
-0.0004238974276225213
-0.0003598297923589688
-9.869098338983488e-6
0.000450760185904076
-0.0004026259959928074
-0.00022050492564218684
0.0001677442608184016
-0.00044461873655198
-0.0003368585107561478
-0.0004238974276225213
-0.0003598297923589688
-9.869098338983488e-6
0.000450760185904076
-0.0004026259959928074
-0.00022050492564218684
0.0001677442608184016
-0.00044461873655198
-0.0003368585107561478
-0.0004238974276225213
-0.0003598297923589688
-9.869098338983488e-6
0.000450760185904076
-0.0004026259959928074
-0.00022050492564218684
0.0001677442608184016
-0.00044461873655198
-0.0003368585107561478
-0.0004238974276225213
-0.0003598297923589688
-9.869098338983488e-6
0.000450760185904076
-0.0004026259959928074
-0.00022050492564218684
0.0001677442608184016
-0.00044461873655198
-0.0003368585107561478
-0.0004238974276225213
-0.0003598297923589688
-9.869098338983488e-6
0.000450760185904076
-0.0004026259959928074
-0.00022050492564218684
0.0001677442608184016
-0.00044461873655198
-0.0003368585107561478
-0.0004238974276225213
-0.0003598297923589688
-9.869098338983488e-6
0.000450760185904076
-0.0004026259959928074
-0.00022050492564218684
0.0001677442608184016
-0.00044461873655198
-0.0003368585107561478
-0.0004238974276225213
-0.0003598297923589688
-9.869098338983488e-6
0.000450760185904076
-0.0004026259959928074
-0.00022050492564218684
0.0001677442608184016
-0.00044461873655198
-0.0003368585107561478
-0.0004238974276225213
-0.0003598297923589688
-9.869098338983488e-6
0.000450760185904076
-0.0004026259959928074
-0.00022050492564218684
0.0001677442608184016
-0.00044461873655198
-0.0003368585107561478
-0.0004238974276225213
-0.0003598297923589688
-9.869098338983488e-6
0.000450760185904076
-0.0004026259959928074
-0.00022050492564218684
0.0001677442608184016
-0.00044461873655198
-0.0003368585107561478
-0.0004238974276225213
-0.0003598297923589688
-9.869098338983488e-6
0.000450760185904076
-0.0004026259959928074
-0.00022050492564218684
0.0001677442608184016
-0.00044461873655198
-0.0003368585107561478
-0.0004238974276225213
-0.0003598297923589688
-9.869098338983488e-6
0.000450760185904076
-0.0004026259959928074
-0.00022050492564218684
0.0001677442608184016
-0.00044461873655198
-0.0003368585107561478
-0.0004238974276225213
-0.0003598297923589688
-9.869098338983488e-6
0.000450760185904076
-0.0004026259959928074
-0.00022050492564218684
0.0001677442608184016
-0.00044461873655198
-0.0003368585107561478
-0.0004238974276225213
-0.0003598297923589688
-9.869098338983488e-6
0.000450760185904076
-0.0004026259959928074
-0.00022050492564218684
0.0001677442608184016
-0.00044461873655198
-0.0003368585107561478
-0.0004238974276225213
-0.0003598297923589688
-9.869098338983488e-6
0.000450760185904076
-0.0004026259959928074
-0.00022050492564218684
0.0001677442608184016
-0.00044461873655198
-0.0003368585107561478
-0.0004238974276225213
-0.0003598297923589688
-9.869098338983488e-6
0.000450760185904076
-0.0004026259959928074
-0.00022050492564218684
0.0001677442608184016
-0.00044461873655198
-0.0003368585107561478
-0.0004238974276225213
-0.0003598297923589688
-9.869098338983488e-6
0.000450760185904076
-0.0004026259959928074
-0.00022050492564218684
0.0001677442608184016
-0.00044461873655198
-0.0003368585107561478
-0.0004238974276225213
-0.0003598297923589688
-9.869098338983488e-6
0.000450760185904076
-0.0004026259959928074
-0.00022050492564218684
0.0001677442608184016
-0.00044461873655198
-0.0003368585107561478
-0.0004238974276225213
-0.0003598297923589688
-9.869098338983488e-6
0.000450760185904076
-0.0004026259959928074
-0.00022050492564218684
0.0001677442608184016
-0.00044461873655198
-0.0003368585107561478
-0.0004238974276225213
-0.0003598297923589688
-9.869098338983488e-6
0.000450760185904076
-0.0004026259959928074
-0.00022050492564218684
0.0001677442608184016
-0.00044461873655198
-0.0003368585107561478
-0.0004238974276225213
-0.0003598297923589688
-9.869098338983488e-6
0.000450760185904076
-0.0004026259959928074
-0.00022050492564218684
0.0001677442608184016
-0.00044461873655198
-0.0003368585107561478
-0.0004238974276225213
-0.0003598297923589688
-9.869098338983488e-6
0.000450760185904076
-0.0004026259959928074
-0.00022050492564218684
0.0001677442608184016
-0.00044461873655198
-0.0003368585107561478
-0.0004238974276225213
-0.0003598297923589688
-9.869098338983488e-6
0.000450760185904076
-0.0004026259959928074
-0.00022050492564218684
0.0001677442608184016
-0.00044461873655198
-0.0003368585107561478
-0.0004238974276225213
-0.0003598297923589688
-9.869098338983488e-6
0.000450760185904076
-0.0004026259959928074
-0.00022050492564218684
0.0001677442608184016
-0.00044461873655198
-0.0003368585107561478
-0.0004238974276225213
-0.0003598297923589688
-9.869098338983488e-6
0.000450760185904076
0.0016539468039766323
2.282282394064069e-5
0.0002346179783242658
0.7898327916702628
1.4133363656973865e-5
0.0013519172538672866
-2.3030330902733648e-7
1.3638506355352749e-5
0.00040439616904885
