-0.00029310425749687254
-0.00029310425749687254
-0.00029310425749687254
-0.00029310425749687254
-0.00029310425749687254
-0.00029310425749687254
-0.00029310425749687254
-0.00029310425749687254
-0.00029310425749687254
-0.00029310425749687254
-0.00029310425749687254
-0.00029310425749687254
-0.00029310425749687254
-0.00029310425749687254
-0.00029310425749687254
-0.00029310425749687254
-0.00029310425749687254
-0.00029310425749687254
-0.00029310425749687254
-0.00029310425749687254
-0.00029310425749687254
-0.00029310425749687254
-0.00029310425749687254
-0.00029310425749687254
-0.00029310425749687254
-0.00029310425749687254
-0.00029310425749687254
-0.00029310425749687254
-0.00029310425749687254
-0.00029310425749687254
-0.00029310425749687254
-0.00029310425749687254
0.00034130972798054513
0.00034130972798054513
0.00034130972798054513
0.00034130972798054513
0.00034130972798054513
0.00034130972798054513
0.00034130972798054513
0.00034130972798054513
0.00034130972798054513
0.00034130972798054513
0.00034130972798054513
0.00034130972798054513
0.00034130972798054513
0.00034130972798054513
0.00034130972798054513
0.00034130972798054513
0.00034130972798054513
0.00034130972798054513
0.00034130972798054513
0.00034130972798054513
0.00034130972798054513
0.00034130972798054513
0.00034130972798054513
0.00034130972798054513
0.00034130972798054513
0.00034130972798054513
0.00034130972798054513
0.00034130972798054513
0.00034130972798054513
0.00034130972798054513
0.00034130972798054513
0.00034130972798054513
7.504708132407252e-5
7.504708132407252e-5
7.504708132407252e-5
7.504708132407252e-5
7.504708132407252e-5
7.504708132407252e-5
7.504708132407252e-5
7.504708132407252e-5
7.504708132407252e-5
7.504708132407252e-5
7.504708132407252e-5
7.504708132407252e-5
7.504708132407252e-5
7.504708132407252e-5
7.504708132407252e-5
7.504708132407252e-5
7.504708132407252e-5
7.504708132407252e-5
7.504708132407252e-5
7.504708132407252e-5
7.504708132407252e-5
7.504708132407252e-5
7.504708132407252e-5
7.504708132407252e-5
7.504708132407252e-5
7.504708132407252e-5
7.504708132407252e-5
7.504708132407252e-5
7.504708132407252e-5
7.504708132407252e-5
7.504708132407252e-5
7.504708132407252e-5
-0.00030022600774515023
-0.00030022600774515023
-0.00030022600774515023
-0.00030022600774515023
-0.00030022600774515023
-0.00030022600774515023
-0.00030022600774515023
-0.00030022600774515023
-0.00030022600774515023
-0.00030022600774515023
-0.00030022600774515023
-0.00030022600774515023
-0.00030022600774515023
-0.00030022600774515023
-0.00030022600774515023
-0.00030022600774515023
-0.00030022600774515023
-0.00030022600774515023
-0.00030022600774515023
-0.00030022600774515023
-0.00030022600774515023
-0.00030022600774515023
-0.00030022600774515023
-0.00030022600774515023
-0.00030022600774515023
-0.00030022600774515023
-0.00030022600774515023
-0.00030022600774515023
-0.00030022600774515023
-0.00030022600774515023
-0.00030022600774515023
-0.00030022600774515023
0.00018953403015105878
0.00018953403015105878
0.00018953403015105878
0.00018953403015105878
0.00018953403015105878
0.00018953403015105878
0.00018953403015105878
0.00018953403015105878
0.00018953403015105878
0.00018953403015105878
0.00018953403015105878
0.00018953403015105878
0.00018953403015105878
0.00018953403015105878
0.00018953403015105878
0.00018953403015105878
0.00018953403015105878
0.00018953403015105878
0.00018953403015105878
0.00018953403015105878
0.00018953403015105878
0.00018953403015105878
0.00018953403015105878
0.00018953403015105878
0.00018953403015105878
0.00018953403015105878
0.00018953403015105878
0.00018953403015105878
0.00018953403015105878
0.00018953403015105878
0.00018953403015105878
0.00018953403015105878
-0.0006715882748347643
-0.0006715882748347643
-0.0006715882748347643
-0.0006715882748347643
-0.0006715882748347643
-0.0006715882748347643
-0.0006715882748347643
-0.0006715882748347643
-0.0006715882748347643
-0.0006715882748347643
-0.0006715882748347643
-0.0006715882748347643
-0.0006715882748347643
-0.0006715882748347643
-0.0006715882748347643
-0.0006715882748347643
-0.0006715882748347643
-0.0006715882748347643
-0.0006715882748347643
-0.0006715882748347643
-0.0006715882748347643
-0.0006715882748347643
-0.0006715882748347643
-0.0006715882748347643
-0.0006715882748347643
-0.0006715882748347643
-0.0006715882748347643
-0.0006715882748347643
-0.0006715882748347643
-0.0006715882748347643
-0.0006715882748347643
-0.0006715882748347643
2.987110083378045e-6
2.987110083378045e-6
2.987110083378045e-6
2.987110083378045e-6
2.987110083378045e-6
2.987110083378045e-6
2.987110083378045e-6
2.987110083378045e-6
2.987110083378045e-6
2.987110083378045e-6
2.987110083378045e-6
2.987110083378045e-6
2.987110083378045e-6
2.987110083378045e-6
2.987110083378045e-6
2.987110083378045e-6
2.987110083378045e-6
2.987110083378045e-6
2.987110083378045e-6
2.987110083378045e-6
2.987110083378045e-6
2.987110083378045e-6
2.987110083378045e-6
2.987110083378045e-6
2.987110083378045e-6
2.987110083378045e-6
2.987110083378045e-6
2.987110083378045e-6
2.987110083378045e-6
2.987110083378045e-6
2.987110083378045e-6
2.987110083378045e-6
-0.00019458911509057962
-0.00019458911509057962
-0.00019458911509057962
-0.00019458911509057962
-0.00019458911509057962
-0.00019458911509057962
-0.00019458911509057962
-0.00019458911509057962
-0.00019458911509057962
-0.00019458911509057962
-0.00019458911509057962
-0.00019458911509057962
-0.00019458911509057962
-0.00019458911509057962
-0.00019458911509057962
-0.00019458911509057962
-0.00019458911509057962
-0.00019458911509057962
-0.00019458911509057962
-0.00019458911509057962
-0.00019458911509057962
-0.00019458911509057962
-0.00019458911509057962
-0.00019458911509057962
-0.00019458911509057962
-0.00019458911509057962
-0.00019458911509057962
-0.00019458911509057962
-0.00019458911509057962
-0.00019458911509057962
-0.00019458911509057962
-0.00019458911509057962
5.844838551735023e-5
5.844838551735023e-5
5.844838551735023e-5
5.844838551735023e-5
5.844838551735023e-5
5.844838551735023e-5
5.844838551735023e-5
5.844838551735023e-5
5.844838551735023e-5
5.844838551735023e-5
5.844838551735023e-5
5.844838551735023e-5
5.844838551735023e-5
5.844838551735023e-5
5.844838551735023e-5
5.844838551735023e-5
5.844838551735023e-5
5.844838551735023e-5
5.844838551735023e-5
5.844838551735023e-5
5.844838551735023e-5
5.844838551735023e-5
5.844838551735023e-5
5.844838551735023e-5
5.844838551735023e-5
5.844838551735023e-5
5.844838551735023e-5
5.844838551735023e-5
5.844838551735023e-5
5.844838551735023e-5
5.844838551735023e-5
5.844838551735023e-5
8.72489990134191e-5
8.72489990134191e-5
8.72489990134191e-5
8.72489990134191e-5
8.72489990134191e-5
8.72489990134191e-5
8.72489990134191e-5
8.72489990134191e-5
8.72489990134191e-5
8.72489990134191e-5
8.72489990134191e-5
8.72489990134191e-5
8.72489990134191e-5
8.72489990134191e-5
8.72489990134191e-5
8.72489990134191e-5
8.72489990134191e-5
8.72489990134191e-5
8.72489990134191e-5
8.72489990134191e-5
8.72489990134191e-5
8.72489990134191e-5
8.72489990134191e-5
8.72489990134191e-5
8.72489990134191e-5
8.72489990134191e-5
8.72489990134191e-5
8.72489990134191e-5
8.72489990134191e-5
8.72489990134191e-5
8.72489990134191e-5
8.72489990134191e-5
